Language model created by QuickLM on Fri Oct 11 11:59:01 EDT 2019
Copyright (c) 1996-2010 Carnegie Mellon University and Alexander I. Rudnicky

The model is in standard ARPA format, designed by Doug Paul while he was at MITRE.

The code that was used to produce this language model is available in Open Source.
Please visit http://www.speech.cs.cmu.edu/tools/ for more information

The (fixed) discount mass is 0.5. The backoffs are computed using the ratio method.
This model based on a corpus of 34 sentences and 42 words

\data\
ngram 1=42
ngram 2=75
ngram 3=68

\1-grams:
-0.9923 </s> -0.3010
-0.9923 <s> -0.2500
-1.9217 A -0.2945
-2.5237 ALL -0.2997
-2.5237 AMAZON -0.2984
-2.5237 APPS -0.2544
-2.5237 BACK -0.2544
-2.5237 BOX -0.2544
-2.0466 D -0.2971
-2.5237 FIVE -0.2544
-2.5237 FORWARD -0.2544
-2.5237 FULL -0.2544
-1.4824 GO -0.2756
-2.0466 H -0.2971
-2.5237 HALF -0.2544
-2.5237 HOTSTAR -0.2544
-2.5237 HUNGAMA -0.2984
-2.0466 I -0.2932
-2.2227 LEFT -0.2544
-2.0466 M -0.2971
-2.0466 MOVE -0.2486
-2.5237 MOVIE -0.2997
-2.5237 NETFLIX -0.2544
-2.2227 ONE -0.2544
-2.5237 OPEN -0.2544
-2.5237 PAUSE -0.2544
-2.2227 PLAY -0.2544
-2.2227 PRIME -0.2544
-2.2227 RIGHT -0.2544
-2.5237 SEARCH -0.2544
-2.5237 SPEED -0.2544
-2.5237 STOP -0.2544
-1.6207 SWITCH -0.2756
-2.5237 T -0.2945
-2.2227 THREE -0.2544
-1.2450 TO -0.2742
-2.5237 TOP -0.2544
-2.2227 TWO -0.2544
-1.8248 V -0.2456
-2.5237 VOOT -0.2544
-2.5237 YOUTUBE -0.2544
-2.5237 ZEE -0.2997

\2-grams:
-1.8325 <s> BACK 0.0000
-1.8325 <s> FORWARD 0.0000
-1.8325 <s> FULL 0.0000
-0.7911 <s> GO 0.0000
-1.8325 <s> HALF 0.0000
-1.8325 <s> LEFT 0.0000
-1.3554 <s> MOVE 0.0000
-1.8325 <s> OPEN 0.0000
-1.8325 <s> PAUSE 0.0000
-1.8325 <s> PLAY 0.0000
-1.8325 <s> RIGHT 0.0000
-1.8325 <s> SPEED 0.0000
-1.8325 <s> STOP 0.0000
-0.9294 <s> SWITCH 0.0000
-1.8325 <s> TOP 0.0000
-0.3010 A V 0.0000
-0.3010 ALL APPS 0.0000
-0.3010 AMAZON PRIME 0.0000
-0.3010 APPS </s> -0.3010
-0.3010 BACK </s> -0.3010
-0.3010 BOX </s> -0.3010
-0.3010 D M 0.0000
-0.3010 FIVE </s> -0.3010
-0.3010 FORWARD </s> -0.3010
-0.3010 FULL </s> -0.3010
-0.3010 GO TO -0.1526
-0.3010 H D 0.0000
-0.3010 HALF </s> -0.3010
-0.3010 HOTSTAR </s> -0.3010
-0.3010 HUNGAMA PLAY 0.0000
-0.7782 I ONE 0.0000
-0.7782 I THREE 0.0000
-0.7782 I TWO 0.0000
-0.3010 LEFT </s> -0.3010
-0.3010 M I 0.0000
-0.7782 MOVE </s> -0.3010
-0.7782 MOVE LEFT 0.0000
-0.7782 MOVE RIGHT 0.0000
-0.3010 MOVIE BOX 0.0000
-0.3010 NETFLIX </s> -0.3010
-0.3010 ONE </s> -0.3010
-0.3010 OPEN </s> -0.3010
-0.3010 PAUSE </s> -0.3010
-0.3010 PLAY </s> -0.3010
-0.3010 PRIME </s> -0.3010
-0.3010 RIGHT </s> -0.3010
-0.3010 SEARCH </s> -0.3010
-0.3010 SPEED </s> -0.3010
-0.3010 STOP </s> -0.3010
-0.3010 SWITCH TO -0.1984
-0.3010 T V -0.2041
-0.3010 THREE </s> -0.3010
-0.9777 TO A 0.0000
-1.5798 TO ALL 0.0000
-1.5798 TO AMAZON 0.0000
-1.1027 TO H 0.0000
-1.5798 TO HOTSTAR 0.0000
-1.5798 TO HUNGAMA 0.0000
-1.5798 TO MOVIE 0.0000
-1.5798 TO NETFLIX 0.0000
-1.5798 TO PRIME 0.0000
-1.5798 TO SEARCH 0.0000
-1.5798 TO T 0.0000
-1.5798 TO VOOT 0.0000
-1.5798 TO YOUTUBE 0.0000
-1.5798 TO ZEE 0.0000
-0.3010 TOP </s> -0.3010
-0.3010 TWO </s> -0.3010
-0.6990 V </s> -0.3010
-1.0000 V ONE 0.0000
-1.0000 V THREE 0.0000
-1.0000 V TWO 0.0000
-0.3010 VOOT </s> -0.3010
-0.3010 YOUTUBE </s> -0.3010
-0.3010 ZEE FIVE 0.0000

\3-grams:
-0.3010 <s> BACK </s>
-0.3010 <s> FORWARD </s>
-0.3010 <s> FULL </s>
-0.3010 <s> GO TO
-0.3010 <s> HALF </s>
-0.3010 <s> LEFT </s>
-0.7782 <s> MOVE </s>
-0.7782 <s> MOVE LEFT
-0.7782 <s> MOVE RIGHT
-0.3010 <s> OPEN </s>
-0.3010 <s> PAUSE </s>
-0.3010 <s> PLAY </s>
-0.3010 <s> RIGHT </s>
-0.3010 <s> SPEED </s>
-0.3010 <s> STOP </s>
-0.3010 <s> SWITCH TO
-0.3010 <s> TOP </s>
-0.9031 A V </s>
-0.9031 A V ONE
-0.9031 A V THREE
-0.9031 A V TWO
-0.3010 ALL APPS </s>
-0.3010 AMAZON PRIME </s>
-0.3010 D M I
-1.3424 GO TO ALL
-1.3424 GO TO AMAZON
-1.3424 GO TO HOTSTAR
-1.3424 GO TO HUNGAMA
-1.3424 GO TO MOVIE
-1.3424 GO TO NETFLIX
-1.3424 GO TO PRIME
-1.3424 GO TO SEARCH
-1.3424 GO TO VOOT
-1.3424 GO TO YOUTUBE
-1.3424 GO TO ZEE
-0.3010 H D M
-0.3010 HUNGAMA PLAY </s>
-0.3010 I ONE </s>
-0.3010 I THREE </s>
-0.3010 I TWO </s>
-0.7782 M I ONE
-0.7782 M I THREE
-0.7782 M I TWO
-0.3010 MOVE LEFT </s>
-0.3010 MOVE RIGHT </s>
-0.3010 MOVIE BOX </s>
-0.6021 SWITCH TO A
-0.7270 SWITCH TO H
-1.2041 SWITCH TO T
-0.3010 T V </s>
-0.3010 TO A V
-0.3010 TO ALL APPS
-0.3010 TO AMAZON PRIME
-0.3010 TO H D
-0.3010 TO HOTSTAR </s>
-0.3010 TO HUNGAMA PLAY
-0.3010 TO MOVIE BOX
-0.3010 TO NETFLIX </s>
-0.3010 TO PRIME </s>
-0.3010 TO SEARCH </s>
-0.3010 TO T V
-0.3010 TO VOOT </s>
-0.3010 TO YOUTUBE </s>
-0.3010 TO ZEE FIVE
-0.3010 V ONE </s>
-0.3010 V THREE </s>
-0.3010 V TWO </s>
-0.3010 ZEE FIVE </s>

\end\
